<?xml version="1.0"?>
<opencv_storage>
<cascade>
  <stageType>BOOST</stageType>
  <featureType>LBP</featureType>
  <height>24</height>
  <width>24</width>
  <stageParams>
    <boostType>GAB</boostType>
    <minHitRate>9.9000000953674316e-01</minHitRate>
    <maxFalseAlarm>5.0000000000000000e-01</maxFalseAlarm>
    <weightTrimRate>9.4999998807907104e-01</weightTrimRate>
    <maxDepth>1</maxDepth>
    <maxWeakCount>200</maxWeakCount></stageParams>
  <featureParams>
    <maxCatCount>256</maxCatCount>
    <featSize>1</featSize></featureParams>
  <stageNum>7</stageNum>
  <stages>
    <!-- stage 0 -->
    <_>
      <maxWeakCount>3</maxWeakCount>
      <stageThreshold>-1.0183037519454956e+00</stageThreshold>
      <weakClassifiers>
        <_>
          <internalNodes>
            0 -1 11 -2120769 -29985 -526939469 -67132758 -473975873
            -74474833 -1150311766 -1070421</internalNodes>
          <leafValues>
            -7.9430854320526123e-01 5.9277832508087158e-01</leafValues></_>
        <_>
          <internalNodes>
            0 -1 6 -94180382 -832382014 -922299961 -269921 -249432107
            -109909065 -402662401 -1025</internalNodes>
          <leafValues>
            -7.7626013755798340e-01 5.6743901968002319e-01</leafValues></_>
        <_>
          <internalNodes>
            0 -1 18 -54531392 -867174962 1679290967 -35917325 -259004928
            -108935722 -95029806 -34078721</internalNodes>
          <leafValues>
            -7.7145582437515259e-01 5.5226492881774902e-01</leafValues></_></weakClassifiers></_>
    <!-- stage 1 -->
    <_>
      <maxWeakCount>4</maxWeakCount>
      <stageThreshold>-1.6480859518051147e+00</stageThreshold>
      <weakClassifiers>
        <_>
          <internalNodes>
            0 -1 1 -570426898 -69233193 -754320912 -460706 -18880073
            -72898369 -67118340 -4195333</internalNodes>
          <leafValues>
            -8.0182111263275146e-01 4.3865841627120972e-01</leafValues></_>
        <_>
          <internalNodes>
            0 -1 10 -134241605 -207623997 -746476869 -111212397
            -112481349 -69559048 -98983237 -69229909</internalNodes>
          <leafValues>
            -6.5222543478012085e-01 5.7513046264648438e-01</leafValues></_>
        <_>
          <internalNodes>
            0 -1 19 -193990656 1145502588 -636332652 -24257826
            -681577723 -42363477 -209765444 -67240993</internalNodes>
          <leafValues>
            -8.1068104505538940e-01 4.4756793975830078e-01</leafValues></_>
        <_>
          <internalNodes>
            0 -1 5 -238031201 -27265317 1645183206 -521486138 -779171498
            -1010260181 -336112156 -260837249</internalNodes>
          <leafValues>
            -6.4160740375518799e-01 5.2595394849777222e-01</leafValues></_></weakClassifiers></_>
    <!-- stage 2 -->
    <_>
      <maxWeakCount>3</maxWeakCount>
      <stageThreshold>-8.8771146535873413e-01</stageThreshold>
      <weakClassifiers>
        <_>
          <internalNodes>
            0 -1 9 -134365249 -145258049 -1727165797 -1151883240
            -1153122369 -73427235 -1081496917 -1073796597</internalNodes>
          <leafValues>
            -7.7243590354919434e-01 3.9539006352424622e-01</leafValues></_>
        <_>
          <internalNodes>
            0 -1 0 -270536721 170394031 -676997185 -1392899030 160223231
            51341615 -6558725 -268451057</internalNodes>
          <leafValues>
            -6.6493421792984009e-01 5.1996469497680664e-01</leafValues></_>
        <_>
          <internalNodes>
            0 -1 21 -134267553 1000337915 -183512321 -211822095
            -1267509932 1363616869 -439525364 -37228707</internalNodes>
          <leafValues>
            -5.7225006818771362e-01 5.4965865612030029e-01</leafValues></_></weakClassifiers></_>
    <!-- stage 3 -->
    <_>
      <maxWeakCount>5</maxWeakCount>
      <stageThreshold>-9.4542771577835083e-01</stageThreshold>
      <weakClassifiers>
        <_>
          <internalNodes>
            0 -1 3 1667747023 1274872705 -671084073 -13529001 1250044095
            1069122457 -125187393 -263222</internalNodes>
          <leafValues>
            -7.7435332536697388e-01 3.4404057264328003e-01</leafValues></_>
        <_>
          <internalNodes>
            0 -1 8 -748953633 956420355 -809385505 448471169 30204315
            -100022267 -1944993633 51094063</internalNodes>
          <leafValues>
            -7.1702915430068970e-01 4.2856895923614502e-01</leafValues></_>
        <_>
          <internalNodes>
            0 -1 16 -4101 -268697665 -340282878 -608243761 -67110981
            -268697925 1676391042 -1440224342</internalNodes>
          <leafValues>
            -5.7031607627868652e-01 6.0377734899520874e-01</leafValues></_>
        <_>
          <internalNodes>
            0 -1 22 -402660685 -1393098765 1577051409 -537530959
            -536875553 -323166875 1414907236 -707275407</internalNodes>
          <leafValues>
            -5.7761782407760620e-01 6.2483018636703491e-01</leafValues></_>
        <_>
          <internalNodes>
            0 -1 17 2111534495 -578092645 -1768701669 1593914204
            1078223524 940673027 1138886855 1610563807</internalNodes>
          <leafValues>
            -6.2580287456512451e-01 5.7857251167297363e-01</leafValues></_></weakClassifiers></_>
    <!-- stage 4 -->
    <_>
      <maxWeakCount>3</maxWeakCount>
      <stageThreshold>-7.6358950138092041e-01</stageThreshold>
      <weakClassifiers>
        <_>
          <internalNodes>
            0 -1 14 -1316818724 -268433392 538520669 -717975446
            -1863628379 -1138613392 -2138980215 -6571318</internalNodes>
          <leafValues>
            -7.0996695756912231e-01 5.6964892148971558e-01</leafValues></_>
        <_>
          <internalNodes>
            0 -1 20 -486248080 1351847953 -1862139887 -1164893905
            -771385280 -494927484 679561344 -51592511</internalNodes>
          <leafValues>
            -6.8071901798248291e-01 5.7662004232406616e-01</leafValues></_>
        <_>
          <internalNodes>
            0 -1 7 -419439273 -18695562 -17650050 -1875213662
            -1593897378 -295805091 2138821846 -94221078</internalNodes>
          <leafValues>
            -6.3024264574050903e-01 6.7509394884109497e-01</leafValues></_></weakClassifiers></_>
    <!-- stage 5 -->
    <_>
      <maxWeakCount>3</maxWeakCount>
      <stageThreshold>-7.7212595939636230e-01</stageThreshold>
      <weakClassifiers>
        <_>
          <internalNodes>
            0 -1 12 -702873585 266240 -1870643200 -620473456 1073779352
            -1879031808 -931101973 -1828528058</internalNodes>
          <leafValues>
            -7.3333334922790527e-01 6.9523811340332031e-01</leafValues></_>
        <_>
          <internalNodes>
            0 -1 23 -1052442305 272711680 524289 -788529080 131333
            -2138546164 -1063778296 -846511878</internalNodes>
          <leafValues>
            -6.4771306514739990e-01 7.5800502300262451e-01</leafValues></_>
        <_>
          <internalNodes>
            0 -1 2 1211158784 1342382373 1074860181 -2099937272
            -2113896288 -2013265918 -939519863 -669966336</internalNodes>
          <leafValues>
            -7.9617178440093994e-01 6.0892045497894287e-01</leafValues></_></weakClassifiers></_>
    <!-- stage 6 -->
    <_>
      <maxWeakCount>3</maxWeakCount>
      <stageThreshold>-5.4702365398406982e-01</stageThreshold>
      <weakClassifiers>
        <_>
          <internalNodes>
            0 -1 15 -268189687 268435456 5144 -2130706432 8388738
            -2147483648 -1073739574 1224736776</internalNodes>
          <leafValues>
            -8.0073463916778564e-01 9.0510946512222290e-01</leafValues></_>
        <_>
          <internalNodes>
            0 -1 13 -999740919 2075979724 536898632 613707509 372530975
            -548417713 873764634 738692674</internalNodes>
          <leafValues>
            -7.0938116312026978e-01 9.4648402929306030e-01</leafValues></_>
        <_>
          <internalNodes>
            0 -1 4 2147041831 -1317228888 -419451163 820686575
            1149203540 745895671 1961349484 -1871190148</internalNodes>
          <leafValues>
            -6.4735484123229980e-01 9.6309214830398560e-01</leafValues></_></weakClassifiers></_></stages>
  <features>
    <_>
      <rect>
        0 0 3 4</rect></_>
    <_>
      <rect>
        0 1 8 2</rect></_>
    <_>
      <rect>
        0 5 6 4</rect></_>
    <_>
      <rect>
        0 8 4 1</rect></_>
    <_>
      <rect>
        0 14 3 2</rect></_>
    <_>
      <rect>
        1 12 3 3</rect></_>
    <_>
      <rect>
        2 6 3 4</rect></_>
    <_>
      <rect>
        3 12 2 3</rect></_>
    <_>
      <rect>
        5 2 3 4</rect></_>
    <_>
      <rect>
        5 3 4 3</rect></_>
    <_>
      <rect>
        6 2 4 4</rect></_>
    <_>
      <rect>
        6 3 4 3</rect></_>
    <_>
      <rect>
        8 6 3 2</rect></_>
    <_>
      <rect>
        8 7 3 5</rect></_>
    <_>
      <rect>
        8 18 3 2</rect></_>
    <_>
      <rect>
        10 5 3 2</rect></_>
    <_>
      <rect>
        11 10 4 4</rect></_>
    <_>
      <rect>
        12 0 2 5</rect></_>
    <_>
      <rect>
        12 5 4 5</rect></_>
    <_>
      <rect>
        14 6 3 3</rect></_>
    <_>
      <rect>
        15 1 1 2</rect></_>
    <_>
      <rect>
        15 1 3 2</rect></_>
    <_>
      <rect>
        15 17 2 2</rect></_>
    <_>
      <rect>
        17 0 2 4</rect></_></features></cascade>
</opencv_storage>
